477 10
items 0.95310634 -1.0620712 1.3398669 0.7458679 0.51156527 -0.94835246 1.8726275 1.5895803 -1.4018438 -0.86575633
line 0.9565507 -0.9934734 1.1297224 0.6736317 0.49940678 -0.80836767 1.6954165 1.3863353 -1.3308891 -0.8506486
applicable 0.9994715 -0.9761025 1.3138529 0.63420075 0.6428739 -0.8732797 1.7396241 1.5061972 -1.3816586 -0.8348511
all 0.7471945 -0.90593106 1.1888087 0.4776483 0.48343655 -0.7550608 1.627626 1.206385 -1.1508312 -0.74828607
seller 0.71386987 -0.8504396 0.9879934 0.49832344 0.4973809 -0.7292153 1.4530532 1.3489301 -1.0891721 -0.60274243
date 0.79401135 -0.9248261 1.1200757 0.5924065 0.62224936 -0.8263502 1.6898161 1.2831987 -1.2676095 -0.64696324
purchaser 0.46760005 -0.5325535 0.6059678 0.24389124 0.28027168 -0.40579575 0.89913553 0.80428666 -0.7066829 -0.39107528
information 0.5569468 -0.48188803 0.66395897 0.25431874 0.36064407 -0.4500806 1.0288231 0.78043216 -0.7406246 -0.52698106
nns 0.63582784 -0.69446564 0.91985685 0.50748473 0.34317955 -0.5602528 1.2793126 0.9525251 -0.9417478 -0.4927516
use 0.79577357 -0.85598236 1.0733591 0.52819645 0.57674164 -0.642252 1.3709043 1.1286432 -1.0885898 -0.6000483
page 0.5192886 -0.6334955 0.8552174 0.45946118 0.44672677 -0.6016989 1.1468034 0.98869085 -0.8733088 -0.5713777
number 0.7044636 -0.8765728 0.89247364 0.5509643 0.47175145 -0.5627263 1.4091398 1.1756625 -1.0376059 -0.6159785
item 0.69067156 -0.7871285 0.9748607 0.35557285 0.48081276 -0.5778301 1.2126691 1.0780774 -0.96131426 -0.50788224
9 0.83420926 -0.8582954 0.96741605 0.43279848 0.48956147 -0.62253827 1.4439374 1.1899233 -0.93496144 -0.52980995
no 0.7698378 -0.8380975 0.8257742 0.46058187 0.38649222 -0.5394478 1.3636549 1.0522813 -0.95578784 -0.5717896
order 0.71303356 -0.79684556 0.8298934 0.45878774 0.37649727 -0.47542286 1.2730517 1.0403439 -0.88647157 -0.46176562
coded 0.672001 -0.8127584 0.97394526 0.4625908 0.5056609 -0.62931746 1.5141104 1.1145948 -0.99814546 -0.58873284
material 0.6462368 -0.8500135 0.9596735 0.52790785 0.41663375 -0.6821047 1.2171433 1.0287875 -0.90774167 -0.62452865
description 0.68918747 -0.8242244 1.0869824 0.457929 0.4988069 -0.7228698 1.4622024 1.1052674 -1.073763 -0.7142265
va 0.792582 -0.8875998 1.059443 0.44647977 0.455587 -0.6680161 1.5226051 1.184233 -1.195626 -0.6191897
distribution 0.8765216 -0.9449074 1.1056745 0.5747487 0.62611943 -0.7182821 1.6144724 1.3873777 -1.3290462 -0.6888759
rated 0.563855 -0.7152009 0.90553623 0.41892567 0.4504354 -0.60615337 1.2033936 1.0484848 -0.94881415 -0.57383287
hardware 0.65279245 -0.84708244 0.91611344 0.40075856 0.5229142 -0.6947211 1.4384065 1.1648473 -1.0735942 -0.57383406
httpsupplierhuntingtoningallscomsourcingpoappendiceshtml 0.73057425 -0.81804615 0.8225255 0.42590272 0.32797614 -0.6202945 1.2663234 1.065721 -0.9334575 -0.58925736
type 0.7143135 -0.84105533 1.0199995 0.5863733 0.5187145 -0.6438689 1.4637657 1.1672844 -1.1316105 -0.67286706
system 0.7149675 -0.8058897 0.86622137 0.39666408 0.34223336 -0.6879113 1.3080621 1.048761 -1.0627725 -0.63706934
delivery 0.5957021 -0.6562513 0.81950945 0.39014822 0.27722758 -0.40044132 1.1213591 0.91524357 -0.8520113 -0.41691598
notes 0.6577195 -0.63196003 0.8574974 0.43239173 0.34552175 -0.46181288 1.254195 0.9880098 -0.8900358 -0.52780014
adod 0.84544647 -1.0048426 1.0153852 0.5539799 0.5194633 -0.7968286 1.5110223 1.2049786 -1.0766038 -0.7104375
size 0.4559805 -0.50047106 0.76226753 0.29490605 0.39245266 -0.38853756 0.99979264 0.77731997 -0.6198019 -0.5004988
receipt 0.5866651 -0.65156835 0.88256764 0.43315297 0.46786466 -0.64556104 1.2896383 1.1125683 -0.884743 -0.6483885
required 0.51834506 -0.42422497 0.6054339 0.22339779 0.35103598 -0.40257636 0.8861943 0.6028385 -0.6795717 -0.29419523
part 0.4242167 -0.47458264 0.6320718 0.3634398 0.15284787 -0.33929858 0.81960374 0.65913504 -0.54720414 -0.34508592
defense 0.5428983 -0.6285797 0.6339114 0.33547962 0.36462307 -0.38639113 1.0943546 0.7657983 -0.84381557 -0.36000058
not 0.7014138 -0.6844927 0.9525207 0.42036486 0.48712716 -0.5693343 1.2832171 1.0031378 -0.96986526 -0.59642136
unit 0.7633722 -0.79825455 0.86668605 0.385113 0.37644526 -0.6417002 1.3754339 1.2106521 -0.95699954 -0.66198176
supplier 0.4548296 -0.45901194 0.68320423 0.2932525 0.3227627 -0.46512493 0.84827054 0.78097475 -0.66529095 -0.4870664
cross 0.6033489 -0.6407811 0.7080345 0.465507 0.31179634 -0.5336448 0.96623766 0.9087064 -0.8143726 -0.44130623
reference 0.59721154 -0.66261166 0.9031875 0.4655206 0.38538575 -0.61024445 1.3135866 1.0578276 -0.9330495 -0.65105003
aluminum 0.71170646 -0.8821062 1.028927 0.49757615 0.5835175 -0.7092607 1.5367035 1.132195 -1.1298702 -0.7232375
avenue 0.48412368 -0.6121592 0.67047316 0.353489 0.3870124 -0.4495506 1.0704366 0.89008325 -0.8336349 -0.40631357
building 0.51623225 -0.59422725 0.68527544 0.40842763 0.30497557 -0.55824155 1.0522618 0.9446449 -0.755943 -0.54306877
specification 0.5682344 -0.7113271 0.8342594 0.46794322 0.31284618 -0.4949961 1.0581545 0.9218004 -0.87325376 -0.47824308
1222rev 0.6842816 -0.66158956 0.8224197 0.3177335 0.46002913 -0.6143115 1.1221281 0.9780744 -0.8686014 -0.50963944
center 0.77696306 -0.9126866 0.9093003 0.6009034 0.5334605 -0.7472945 1.4692055 1.1732649 -1.0292447 -0.7225563
invoked 0.55879146 -0.5314208 0.7858092 0.30695835 0.30619612 -0.5398178 0.87776214 0.71016926 -0.74068534 -0.50837475
7 0.43059525 -0.48729762 0.53019416 0.26979518 0.20365901 -0.3535206 0.82423735 0.6857612 -0.5844682 -0.2365793
inspect 0.50048196 -0.56545174 0.7113691 0.4139603 0.37465364 -0.4274922 1.0295271 0.95186466 -0.711282 -0.57332164
1 0.19235359 -0.37827986 0.38827688 0.15400676 0.09660318 -0.32422194 0.5930794 0.44035602 -0.47238293 -0.2783323
level 0.74660796 -0.84139985 1.007235 0.44276023 0.4678939 -0.72042704 1.4088833 1.153558 -1.0022404 -0.5819076
revision 0.318412 -0.4341526 0.5432386 0.18352939 0.16192347 -0.3827392 0.8143466 0.66719514 -0.6438596 -0.41937745
news 0.43407834 -0.5598754 0.56580174 0.22720312 0.26632065 -0.5110902 0.84633553 0.6842805 -0.701251 -0.4308665
itemsrfq 0.40729958 -0.5597406 0.74399346 0.409422 0.23691665 -0.48149052 0.96274376 0.6772851 -0.68132377 -0.35987183
mcl 0.6888295 -0.78976876 0.791473 0.34641442 0.39182633 -0.47002718 1.2475082 1.0218484 -0.8418921 -0.5733168
note 0.49313322 -0.50857 0.45599437 0.23917967 0.23450759 -0.3866299 0.7361584 0.6804928 -0.56510603 -0.35643753
packaging 0.6780632 -0.80688566 0.9416338 0.5260016 0.31048256 -0.55968356 1.3280225 0.92568284 -0.990162 -0.63671297
appendices 0.58465934 -0.5649442 0.7643485 0.2577027 0.34761792 -0.425505 0.95691925 0.8095092 -0.7836893 -0.5275361
qty 0.55129766 -0.5269018 0.7831215 0.41859978 0.3156578 -0.38914663 0.9054722 0.8559196 -0.7487801 -0.41404837
contracts 0.54592615 -0.587355 0.68216234 0.22650582 0.280236 -0.5093355 0.8329743 0.826547 -0.67865777 -0.3779974
approved 0.5140673 -0.38545334 0.49273303 0.26255608 0.36980417 -0.3302006 0.78757626 0.57359284 -0.5717396 -0.4338323
rating 0.3873684 -0.3823895 0.39102846 0.21113619 0.18443334 -0.25897706 0.63236845 0.46889496 -0.46195596 -0.27349722
control 0.6607186 -0.6441456 0.7898141 0.49605575 0.32050017 -0.5449331 1.2183195 0.98944765 -0.821382 -0.6023817
inspection 0.5243729 -0.5909518 0.774755 0.35519886 0.32998908 -0.43620527 0.948902 0.74369717 -0.7186164 -0.45679766
end 0.7598251 -0.68097925 0.9130783 0.49851954 0.3707348 -0.6010014 1.2341226 0.9836519 -1.0329787 -0.68386006
deadline 0.75934017 -0.8201424 0.9959576 0.3893163 0.46170262 -0.5183093 1.2133195 0.96107006 -1.0081546 -0.6169045
httpsupplierhuntingtoningallscomsourcingappendixaappendappadodcontracts20221215pdf 0.456305 -0.60166675 0.53015125 0.34351808 0.2008338 -0.50284153 0.843022 0.6264538 -0.71786964 -0.4772094
by 0.6983387 -0.82776195 1.0057061 0.49050412 0.40036744 -0.57128173 1.2638825 1.0434724 -1.0605929 -0.64702654
hose 0.70326054 -0.7366457 0.93162173 0.5342741 0.51080334 -0.7162148 1.3985198 1.165501 -1.0429485 -0.5516027
at 0.7342526 -0.8092498 0.83035976 0.47735426 0.400488 -0.6621153 1.3581452 0.9856596 -1.0084496 -0.5818149
worth 0.4725287 -0.5479912 0.62921125 0.32791838 0.2989392 -0.43206194 1.0188665 0.70920086 -0.71484977 -0.37087172
15 0.4326014 -0.43412924 0.5520663 0.3196372 0.17234586 -0.3118469 0.7027709 0.5071749 -0.5488647 -0.36492464
std 0.49118215 -0.5506157 0.7064902 0.30596223 0.30377337 -0.4173643 0.97857773 0.76153415 -0.7636854 -0.51936364
cui 0.49305606 -0.4845657 0.6801679 0.24792303 0.2296173 -0.3778639 0.9011033 0.83441734 -0.76947105 -0.34016263
supply 0.48931092 -0.58338445 0.7317421 0.30151755 0.30279562 -0.5099657 0.9836919 0.840737 -0.8560715 -0.44942555
within 0.569091 -0.5579616 0.6240321 0.35603628 0.3829311 -0.48750237 0.82886803 0.71198815 -0.58097154 -0.3999833
fort 0.49003592 -0.65522176 0.8675127 0.3148517 0.30655205 -0.42719686 0.995703 0.93268514 -0.8060888 -0.42901573
working 0.5260363 -0.5225148 0.5481503 0.38848853 0.2959683 -0.33511963 0.7397919 0.78660697 -0.6378888 -0.439613
reqs 0.50320774 -0.52472174 0.67204356 0.29153237 0.24963446 -0.39802858 0.9705633 0.66982234 -0.62895817 -0.48548025
days 0.46463174 -0.597325 0.6186021 0.38434893 0.3501074 -0.49891457 1.0535133 0.9269438 -0.66687346 -0.47403878
priorities 0.495158 -0.5670657 0.54975164 0.38029838 0.27748185 -0.4274715 0.8761284 0.6894722 -0.6322289 -0.45047262
allocations 0.36491072 -0.41967312 0.644469 0.3991326 0.3397502 -0.37305617 0.957208 0.65836585 -0.7084166 -0.34681547
below 0.3333955 -0.38644978 0.49366874 0.16515681 0.28148276 -0.25832027 0.49897918 0.4457705 -0.4950604 -0.2822713
requirements 0.54489595 -0.5075325 0.80757827 0.3021407 0.3631101 -0.4580115 0.991883 0.7385548 -0.7441021 -0.535701
n 0.7121474 -0.77912563 0.9177918 0.53455997 0.3961999 -0.5311952 1.2002474 1.0696025 -0.8694299 -0.65070456
terms 0.6167218 -0.6857003 0.8598579 0.4316485 0.39357275 -0.59083843 1.222744 1.0459554 -0.95787853 -0.5914283
buyer 0.5636414 -0.6272445 0.75493544 0.33854917 0.3917768 -0.52753156 1.0837625 0.88029265 -0.74011487 -0.5559699
apply 0.44783166 -0.6150112 0.7777845 0.3228445 0.22273499 -0.46590388 0.92543495 0.85765594 -0.8167462 -0.41027766
rfq 0.14212956 -0.24406722 0.37340516 0.23186284 0.06900514 -0.2667399 0.37038842 0.28235307 -0.42354643 -0.22236457
electronic 0.43327594 -0.5609252 0.6498837 0.30913988 0.33125728 -0.37627023 0.83586425 0.60791737 -0.6398214 -0.3355863
only 0.408743 -0.49832746 0.64235 0.291573 0.38269123 -0.32596335 0.8873394 0.78430194 -0.58946747 -0.4501671
04202023 0.49559903 -0.6765188 0.6550865 0.4514249 0.3168115 -0.5574551 0.9859334 0.89500785 -0.80361587 -0.5042352
6001149485 0.4280013 -0.48950002 0.54070103 0.29252753 0.23102029 -0.2866533 0.8155478 0.54052675 -0.5213991 -0.4219952
address 0.5339395 -0.54332286 0.6504874 0.33198318 0.4024652 -0.51223916 0.91378844 0.90709877 -0.7623067 -0.49558592
deliverables 0.46740514 -0.378584 0.54675806 0.34360847 0.14978045 -0.29226232 0.73584265 0.627246 -0.52190787 -0.2791462
x 0.5116194 -0.46047434 0.5913986 0.27484027 0.29312795 -0.39837986 0.85195595 0.7900049 -0.62388295 -0.32073054
deliver 0.36741647 -0.29885548 0.44511473 0.3107146 0.25148368 -0.38916096 0.61090815 0.50947845 -0.43647727 -0.30290183
600114xxxx 0.35578138 -0.34579137 0.6010422 0.2420995 0.1846106 -0.3874305 0.6745317 0.49302262 -0.52553105 -0.37023282
valid 0.6049448 -0.60134864 0.7432904 0.29393092 0.37002733 -0.58755046 1.1277243 0.8665183 -0.7575605 -0.49356195
listed 0.5621938 -0.61920595 0.68750995 0.4317498 0.3423809 -0.5305607 0.91650325 0.83083165 -0.6828801 -0.39756507
04122023 0.36523387 -0.41414136 0.6440502 0.37553167 0.37543958 -0.47962445 0.7610974 0.75633705 -0.54534626 -0.35354438
fax 0.5206617 -0.5126087 0.6732294 0.20351562 0.19299842 -0.4622594 0.79866177 0.7324459 -0.66221815 -0.46610132
60000 0.7625039 -0.7906376 0.9906281 0.40439114 0.4627785 -0.553949 1.2932574 1.0158323 -0.9271533 -0.66176075
contact 0.4147195 -0.5159808 0.6626649 0.25859082 0.20591858 -0.34781608 0.8251343 0.64373344 -0.54879063 -0.33841082
phone 0.36680797 -0.4445715 0.6328943 0.3447675 0.3119017 -0.31413665 0.7871242 0.60424966 -0.632272 -0.34934834
2 0.54958224 -0.63491225 0.6885148 0.45370457 0.27951267 -0.579174 1.034681 0.85601634 -0.87456906 -0.48150274
do 0.47056332 -0.59360796 0.6188951 0.37380028 0.35599482 -0.46893755 0.92989475 0.792722 -0.6642789 -0.40943128
descriptions 0.36112404 -0.5331004 0.62319237 0.32449135 0.18460393 -0.35871285 0.75762206 0.62379295 -0.5981166 -0.41919175
mils22698 0.7298528 -0.6795779 0.8861819 0.55849105 0.4424813 -0.5165695 1.35039 0.9768583 -0.9993192 -0.5232431
rev 0.6571194 -0.5881902 0.8790013 0.48667204 0.27710244 -0.49545074 1.0893658 0.9730247 -0.7919296 -0.47697496
na 0.72444886 -0.70663565 0.85890716 0.49992925 0.34705904 -0.5771604 1.3182945 0.9511566 -0.880221 -0.6429281
main 0.4930684 -0.3576036 0.5364835 0.3139862 0.25861305 -0.41675222 0.7289023 0.6732246 -0.601743 -0.37710655
assyvar02 0.58258647 -0.56516355 0.6818159 0.3311337 0.39201397 -0.5331899 0.96998173 0.75656265 -0.7916213 -0.5393319
hull 0.5037696 -0.6954026 0.74123096 0.2839918 0.23103426 -0.57373303 0.96016484 0.9076681 -0.7289894 -0.4686232
2175 0.40596607 -0.5526339 0.57994705 0.2976271 0.2694586 -0.38028067 0.8220904 0.66757476 -0.6865475 -0.4305009
0 0.24510728 -0.38140714 0.45743966 0.2987707 0.18718508 -0.31793717 0.7190962 0.5128779 -0.48726282 -0.19576241
weight 0.29999313 -0.3563297 0.42558107 0.23176306 0.10058845 -0.25007695 0.5244625 0.48000136 -0.3996833 -0.26254246
b 0.6141495 -0.6585948 0.8093124 0.38019106 0.3142207 -0.45957434 1.2048593 1.0076641 -0.9332054 -0.49063188
mdc 0.39639327 -0.38400143 0.59582525 0.33239144 0.28770664 -0.3185935 0.75487053 0.7413153 -0.62667865 -0.41381198
ilo 0.46517628 -0.43885463 0.5834822 0.30701888 0.3729125 -0.43940964 0.85333943 0.6882903 -0.59791934 -0.3506864
eaunit 0.510074 -0.5494432 0.52751195 0.35187575 0.35696346 -0.46914247 0.7940043 0.6855465 -0.70478755 -0.42038402
integrity 0.48358598 -0.605151 0.76012534 0.24824226 0.35420406 -0.39326286 0.92597103 0.8667106 -0.6017948 -0.48327816
23661 0.41091177 -0.5904305 0.5437482 0.2810062 0.23049028 -0.50147474 0.8883156 0.7520044 -0.597472 -0.42752475
supp 0.44409916 -0.5301218 0.65411824 0.4073273 0.3013188 -0.36927968 0.83391476 0.83516186 -0.70688754 -0.33604932
contract 0.39799014 -0.5103578 0.64217365 0.32248712 0.24187441 -0.5196403 0.8189024 0.65224224 -0.64656675 -0.40368038
navy 0.3850104 -0.37733674 0.5111817 0.2559643 0.1579859 -0.4575792 0.8486557 0.56183183 -0.6305085 -0.29396284
bhampton 0.4469102 -0.4913728 0.5059692 0.19399756 0.24396656 -0.38163346 0.6757992 0.6021417 -0.4444658 -0.25114858
httpsupplierhuntingtoningallscomsourcingappendixaappendappadodcontractsnnssupplement20221215pdfadod 0.49203107 -0.7152349 0.86590767 0.42048058 0.3189205 -0.5224062 1.2147099 0.9014054 -0.9288359 -0.49391568
contractsvcs 0.5468422 -0.47554415 0.68948656 0.26746804 0.2927728 -0.43537727 0.9562901 0.67195106 -0.76576424 -0.41648954
name 0.5593484 -0.6591452 0.8561237 0.53460747 0.348996 -0.582578 1.2960325 0.9559612 -0.96326125 -0.5381557
noun 0.5118183 -0.56773996 0.71686995 0.25126317 0.33822876 -0.43294433 1.0083838 0.8132784 -0.620996 -0.33993262
pg 0.12670113 -0.1522347 0.216817 0.12446003 0.08705311 -0.24914257 0.33875704 0.267284 -0.3591201 -0.20189792
hampton 0.4466411 -0.49230072 0.56981695 0.277724 0.4015687 -0.3756223 1.0147113 0.8126079 -0.6967138 -0.4880126
8 0.5220839 -0.4861362 0.6890165 0.37345693 0.35946977 -0.32569256 0.76763344 0.645698 -0.6353606 -0.327093
mdc2175 0.5914034 -0.52176386 0.76158714 0.2965859 0.38323078 -0.5025724 0.8820092 0.88965917 -0.7164509 -0.47267118
location 0.5208413 -0.6534068 0.7758294 0.41710952 0.312893 -0.5595694 0.9989273 0.8463919 -0.71312875 -0.4937193
6001149819 0.5706276 -0.62350225 0.68331236 0.40601453 0.33500242 -0.47594586 1.1200516 0.86395854 -0.82299376 -0.41256556
releas 0.6353834 -0.58623683 0.8218714 0.4789745 0.4368037 -0.53447634 1.1908491 0.95022047 -0.766527 -0.5176125
04212023 0.3510065 -0.4567671 0.40507084 0.28220272 0.31957155 -0.24532591 0.68114454 0.6359269 -0.48545566 -0.36558014
smc 0.3939234 -0.46629557 0.57559496 0.30465963 0.2646922 -0.2916601 0.7845318 0.6464045 -0.53155094 -0.3895349
23661hardware 0.46925464 -0.35680118 0.52648604 0.24633352 0.17733198 -0.3837671 0.81032866 0.56173867 -0.6069779 -0.22942992
eb2p756 0.6727185 -0.56664705 0.8055064 0.31269082 0.4478007 -0.5710265 1.1768606 0.9597373 -0.7421018 -0.6062466
lair 0.55656755 -0.611152 0.54857093 0.22246552 0.23386754 -0.33934292 0.97023076 0.6850371 -0.62365186 -0.43612966
384 0.43720624 -0.34373218 0.48508257 0.20671737 0.15432619 -0.2713089 0.69089615 0.52914983 -0.42669863 -0.35102096
httpwwwgdebcomsuppliersstdclseffective 0.4927225 -0.6725137 0.7727318 0.3266449 0.30167222 -0.607011 1.194404 0.9721778 -0.8250212 -0.42602953
spec 0.6442346 -0.63643044 0.8224505 0.4177475 0.400903 -0.43740225 1.010984 0.8510738 -0.78459466 -0.43981263
httpwwwgdebcomsuppliersstdclsnewport 0.32103077 -0.26392594 0.43180496 0.10364817 0.14309931 -0.32865176 0.6350831 0.49099433 -0.40351224 -0.20982264
doc 0.35922083 -0.5508339 0.61548954 0.36031193 0.30949938 -0.33280444 0.803493 0.6483332 -0.6161722 -0.40757322
tier 0.3784688 -0.56167793 0.6506922 0.2811804 0.25195366 -0.46711746 0.9070686 0.68340635 -0.5967904 -0.34788555
first 0.40828198 -0.5187588 0.67129177 0.23489003 0.3439347 -0.40047216 0.9758121 0.7927117 -0.7050969 -0.4832187
d0700 0.3442785 -0.28038722 0.41357878 0.2482986 0.18767078 -0.3015679 0.5091575 0.50153327 -0.44321394 -0.13961083
on 0.30806592 -0.38218674 0.5277766 0.33066198 0.18331352 -0.38558745 0.6519776 0.61591566 -0.5783956 -0.2385136
modifier 0.4364608 -0.62894773 0.5928073 0.38619262 0.22896865 -0.48285457 0.8309656 0.8019788 -0.64146584 -0.38245615
specifications 0.35959852 -0.37204793 0.45876265 0.24451363 0.18143255 -0.36001298 0.7124354 0.68647087 -0.5480073 -0.42443976
sc6011e 0.43314463 -0.6115724 0.67320806 0.42373794 0.23536597 -0.34935206 0.9972455 0.6754507 -0.76765114 -0.3227635
6011d 0.6223663 -0.642462 0.6494063 0.44189182 0.36569685 -0.39692128 0.9366776 0.72964704 -0.7385625 -0.5584432
packing 0.4028375 -0.53628993 0.69979686 0.39323363 0.25315258 -0.34884414 0.9390374 0.6761841 -0.53678817 -0.31511676
purchasing 0.43544915 -0.49793297 0.49880785 0.24475816 0.33037362 -0.43051922 0.7475695 0.7274789 -0.547737 -0.29457766
ori 0.5034165 -0.6582619 0.8337097 0.34848157 0.43492717 -0.42744645 1.0928215 0.8795367 -0.82891494 -0.5573773
501 0.18587877 -0.30713758 0.32226387 0.22147104 0.091613926 -0.18018954 0.4314608 0.3293616 -0.2869016 -0.13961297
httpwwwgdebcomsuppliersstdclsmercury 0.36650392 -0.4142461 0.4807589 0.18302657 0.19739754 -0.29123005 0.8231717 0.7182997 -0.4937647 -0.27948287
contamination 0.39864713 -0.5282523 0.56416196 0.2562918 0.3040905 -0.3295648 0.6974541 0.67368114 -0.52669364 -0.33077353
prohibited 0.5348508 -0.73323 0.70557326 0.47567737 0.26694465 -0.42891884 1.005181 0.89455855 -0.84252393 -0.5926993
latest 0.52252674 -0.41780305 0.60954785 0.3422312 0.27195928 -0.29693782 0.88597524 0.58007634 -0.65790707 -0.39084482
537 0.4850397 -0.5429642 0.62641954 0.22525945 0.30947554 -0.36381498 0.9044541 0.6734027 -0.71870726 -0.48314252
httpwwwgdebcomsuppliersstdclspreservation 0.51657164 -0.6549096 0.6339445 0.4136782 0.39119563 -0.4456678 0.9036972 0.7481083 -0.65608215 -0.40831876
responsibility 0.39947578 -0.57941186 0.6108915 0.33854204 0.30130705 -0.37752083 0.7956775 0.60299915 -0.7101833 -0.3871941
httpsupplierhuntingtoningallscomsourcingnotesenotese101020180925111914pdfadditional 0.37908378 -0.32321015 0.45666483 0.27559033 0.20436436 -0.25648895 0.5315179 0.5921591 -0.40703195 -0.23757884
whe 0.5448837 -0.443433 0.63537115 0.30640802 0.29979903 -0.519245 0.9725176 0.6666948 -0.5827414 -0.45329994
m2050 0.47426486 -0.61197567 0.5386578 0.24072559 0.21667887 -0.41703165 0.8122469 0.67852294 -0.7146328 -0.44840288
e1010 0.50581104 -0.4369664 0.6695502 0.3671688 0.21396497 -0.3181732 0.72983307 0.6458528 -0.691259 -0.33327985
httpsupplierhuntingtoningallscomsourcingnotesmnotesm205020180802150552pdfreleased 0.52907103 -0.5003904 0.7155666 0.27680585 0.39477015 -0.5196513 1.0535396 0.8193107 -0.7651409 -0.49008363
contractor 0.31180176 -0.4577744 0.5700683 0.21328646 0.3012234 -0.41679126 0.69347805 0.53975534 -0.4279704 -0.39790672
pages 0.30195248 -0.3041395 0.24298729 0.09626176 0.10863538 -0.2390857 0.39684826 0.27693594 -0.31530473 -0.19985636
submittal 0.40988138 -0.4386429 0.49607328 0.25807375 0.3203365 -0.29836562 0.7073154 0.73386866 -0.55284 -0.40715468
descriptiontarget 0.4749708 -0.5241293 0.5925559 0.31047538 0.25480124 -0.39909974 0.69185 0.5658122 -0.5283926 -0.32206333
specific 0.22566025 -0.066553645 0.29130557 0.061598063 0.19232532 -0.14375713 0.3305962 0.26029053 -0.21840556 -0.09342384
work 0.38824132 -0.5436367 0.50910485 0.31956142 0.34057787 -0.38191548 0.8393632 0.7086831 -0.534348 -0.4566362
see 0.15475121 -0.22130826 0.21324176 0.18194161 0.15792432 -0.052247334 0.32960254 0.26782152 -0.118440665 -0.026945345
be 0.26011 -0.24874783 0.46398365 0.18822764 0.27769262 -0.22878419 0.67548305 0.50709367 -0.33533937 -0.25613132
may 0.50266206 -0.42536214 0.61450905 0.24322248 0.323991 -0.29857367 0.75437576 0.6182739 -0.54435253 -0.42120147
premanufacture 0.45335302 -0.49352482 0.4084497 0.26831254 0.28457868 -0.37254542 0.7003718 0.6423586 -0.57161474 -0.36368713
manufacture 0.36320844 -0.49635324 0.57068974 0.37666923 0.3199294 -0.36780593 0.80012053 0.7206281 -0.4912297 -0.3028548
amend 0.49076244 -0.55465347 0.53856635 0.2372486 0.3316812 -0.40773895 0.7223205 0.7426358 -0.5256904 -0.40677458
release 0.589317 -0.5585327 0.6311331 0.33634892 0.30906776 -0.48200163 0.9648502 0.82860583 -0.63348025 -0.51705754
q2050 0.5082714 -0.6420539 0.7819918 0.42404768 0.28361294 -0.44960886 0.93372595 0.81752044 -0.649741 -0.4823477
r001revision 0.43223026 -0.6080874 0.6134769 0.31848687 0.3387501 -0.331052 0.87049633 0.7600205 -0.587015 -0.40047613
00001rfq 0.5210852 -0.47606373 0.77870864 0.4206297 0.2533742 -0.3589404 1.024226 0.88213074 -0.7409923 -0.40310025
suppappendices 0.5095307 -0.53268975 0.6446994 0.32351348 0.3622747 -0.42078543 0.79652894 0.7380059 -0.7069582 -0.44748563
httpsupplierhuntingtoningallscomsourcingappendixaappendappadodcontractsnnssupplement20221215pdf 0.25575337 -0.36299038 0.40093288 0.2850476 0.28941947 -0.292471 0.6137096 0.51365304 -0.46904573 -0.3525272
contractsvcsappendices 0.3110131 -0.30385998 0.3599856 0.25061876 0.17760193 -0.18061757 0.4841052 0.34052876 -0.29305077 -0.19673279
httpsupplierhuntingtoningallscomsourcingnotesvnotesv101020200114104519pdfvendor 0.54249436 -0.4846532 0.6706072 0.38461703 0.216116 -0.3686386 1.0096931 0.71157986 -0.67017674 -0.47111362
v1010 0.38898462 -0.38862687 0.58835745 0.2626909 0.26379174 -0.32389286 0.79535556 0.5270352 -0.5949152 -0.36153844
requirement 0.51125133 -0.53588396 0.6256305 0.33334747 0.25101 -0.4197446 0.97253525 0.7293941 -0.70510703 -0.36362493
tagging 0.38699841 -0.5218451 0.5816457 0.27745783 0.15416223 -0.28646415 0.7074114 0.59151113 -0.6138181 -0.40857053
httpsupplierhuntingtoningallscomsourcingnotestnotest104020180802145720pdfstandard 0.32911542 -0.24950963 0.4582019 0.29295158 0.1884985 -0.26963606 0.55715626 0.3881464 -0.4031257 -0.24776441
t1040 0.27495405 -0.45659623 0.3950856 0.19049752 0.2711699 -0.24167429 0.7355698 0.5940689 -0.4376158 -0.32586363
exclusion 0.39775515 -0.54802984 0.5498308 0.25697517 0.26233461 -0.29526812 0.7072169 0.59951997 -0.64711773 -0.39007437
httpsupplierhuntingtoningallscomsourcingnotesqnotesq309020131014100113pdfberry 0.34900087 -0.4055259 0.54196 0.21215142 0.19295187 -0.3312852 0.7736355 0.648212 -0.56934106 -0.37232172
q3090 0.48202154 -0.6024812 0.731661 0.3837583 0.41250765 -0.5108759 1.0134007 0.77672845 -0.77320343 -0.53635377
appendix 0.42013383 -0.45965943 0.4835093 0.37916395 0.18010533 -0.4825873 0.72406197 0.7391016 -0.5475148 -0.28015795
iaw 0.4013223 -0.40299407 0.46588 0.3440066 0.25600395 -0.2909649 0.6850924 0.5801875 -0.45035273 -0.32554448
domestic 0.37481433 -0.3849656 0.5081606 0.26634067 0.23897323 -0.35897723 0.5927564 0.570638 -0.53886604 -0.2988255
httpsupplierhuntingtoningallscomsourcingnotesqnotesq205020180807131335pdfquality 0.37423718 -0.38716912 0.42002314 0.34648535 0.22366527 -0.3958631 0.7549869 0.56628615 -0.61280805 -0.3732916
6 0.42710716 -0.57077867 0.57853466 0.3139583 0.23359746 -0.35498855 0.83739763 0.76322323 -0.58490074 -0.34889695
h 0.45104423 -0.4920383 0.47720194 0.3625397 0.23975658 -0.47727346 0.7323586 0.6149499 -0.55711985 -0.3116626
10 0.5448853 -0.6057828 0.6518762 0.29479018 0.24965942 -0.36304608 0.9489262 0.7260393 -0.7674727 -0.46538818
termsinvoice 0.32890093 -0.29551345 0.50989974 0.1406634 0.113550454 -0.22649154 0.60707253 0.48070192 -0.41349563 -0.3426501
approver 0.6446069 -0.6682012 0.7300555 0.39829984 0.43656752 -0.44315243 1.1451132 0.9773223 -0.89463145 -0.5192742
newport 0.32613716 -0.41056377 0.48635486 0.21730779 0.1624891 -0.2432332 0.7427611 0.5631193 -0.57775056 -0.24777055
2200 0.4456198 -0.5369976 0.6889467 0.4253226 0.37616798 -0.4845138 0.98108083 0.7643343 -0.810213 -0.46313837
23607purchaser 0.45172498 -0.42339054 0.6834942 0.3837119 0.1886053 -0.32773083 0.7671735 0.66695493 -0.6149803 -0.3119421
group 0.49576116 -0.4577795 0.6964758 0.30801243 0.21460715 -0.46997172 0.9107144 0.6482082 -0.66601205 -0.34880918
chain 0.4673704 -0.6014815 0.63325495 0.34556386 0.32273015 -0.3744832 0.8674811 0.7856387 -0.6248962 -0.3979093
1500 0.4367654 -0.47302213 0.57607585 0.17964691 0.27171534 -0.4345179 0.69368434 0.5011215 -0.55659807 -0.38153276
specialist 0.4756958 -0.57132244 0.7207483 0.3365644 0.23668103 -0.5239663 0.99058735 0.7684543 -0.8308272 -0.45300543
title 0.5250833 -0.44658107 0.50677854 0.3369517 0.21787652 -0.49572277 0.8597761 0.69721407 -0.71230686 -0.4563089
titlepricing 0.3986158 -0.39547646 0.484525 0.36240932 0.25467917 -0.36173022 0.8880112 0.6985923 -0.6329411 -0.32446912
freight 0.42055055 -0.36889657 0.5159644 0.21522908 0.2535826 -0.39732385 0.74280673 0.64429796 -0.49195623 -0.24157704
payment 0.56448084 -0.7703033 0.9209933 0.4509262 0.32367304 -0.5625094 1.2362624 0.9728027 -0.954299 -0.49723116
from 0.64157444 -0.6890602 0.72591764 0.34471595 0.26748088 -0.5011312 0.97767794 0.9405861 -0.827878 -0.43391663
to 0.46902612 -0.48234853 0.6471328 0.41577217 0.2956996 -0.47340477 0.87211293 0.74912727 -0.6971906 -0.4822067
binding 0.48190928 -0.6712113 0.7836019 0.40155375 0.41353944 -0.41486064 0.9525524 0.86094517 -0.67397916 -0.4421015
period 0.399195 -0.3520148 0.40364626 0.34069616 0.29724926 -0.24111055 0.6112071 0.6319454 -0.45530453 -0.3312067
authorized 0.36566997 -0.4292656 0.5087012 0.23728958 0.30397213 -0.30610693 0.90182245 0.6351506 -0.70345956 -0.27207345
signature 0.53824925 -0.5640526 0.5489906 0.27349868 0.25110465 -0.4539255 0.8966006 0.7275347 -0.69852364 -0.4671446
carrier 0.5786658 -0.5797699 0.5644221 0.39941213 0.3215405 -0.3387725 0.86058575 0.66946685 -0.66778386 -0.42194754
ave 0.15828274 -0.2970491 0.3677678 0.2354028 0.2231506 -0.19098322 0.42766663 0.37055397 -0.39492857 -0.15839256
washington 0.15694483 -0.2220134 0.27679777 0.090125084 0.061945383 -0.13380846 0.326303 0.32942182 -0.27734017 -0.10973465
4101 0.2875882 -0.3705423 0.5812046 0.17291988 0.18831174 -0.27019545 0.7292133 0.5719077 -0.42893854 -0.30231553
email 0.33348942 -0.3661272 0.33280617 0.24297415 0.21507473 -0.36821762 0.58240134 0.48581603 -0.43941617 -0.18070452
person 0.43633157 -0.5710972 0.68541783 0.23057856 0.17701073 -0.42435592 0.7830278 0.709831 -0.62565035 -0.41983947
8176160392 0.25229117 -0.34687248 0.40334046 0.24211219 0.27194428 -0.21969001 0.670044 0.3872201 -0.34486476 -0.29117042
derek 0.67631674 -0.62902355 0.8200978 0.2965269 0.2667607 -0.4351522 1.0716634 0.9328707 -0.7564905 -0.50505066
8178380104 0.5250345 -0.4843821 0.47136176 0.21224368 0.25015333 -0.46762687 0.87621415 0.69206834 -0.68677086 -0.28115365
derekboonefortworthgasketcom 0.50112987 -0.40109608 0.6198799 0.17835496 0.2566666 -0.4595523 0.7369478 0.6373182 -0.5818561 -0.3369165
emailordering 0.45603883 -0.45053822 0.61790293 0.35572177 0.20079127 -0.2997044 0.8517324 0.74742436 -0.5460415 -0.39458984
id 0.47580132 -0.5732946 0.6707314 0.43923694 0.32718608 -0.41720182 0.9945071 0.70283765 -0.6525504 -0.35612673
00 0.5040897 -0.55005676 0.62232405 0.2889731 0.40458003 -0.49607867 1.04091 0.81587887 -0.7483617 -0.41846186
version 0.40067235 -0.50934434 0.6094936 0.34909606 0.26222464 -0.39157462 0.7563061 0.78562415 -0.71796405 -0.31056094
102520 0.51133364 -0.59279 0.5742056 0.23589352 0.23584472 -0.3524895 0.97887737 0.7459112 -0.653344 -0.3109295
761187123 0.38254547 -0.49219412 0.6169287 0.22309248 0.16976012 -0.47916257 0.90186924 0.72007453 -0.6585403 -0.4552091
method 0.4304753 -0.43502003 0.54361093 0.29420185 0.2157136 -0.32385528 0.799328 0.7334272 -0.6874705 -0.40891805
quotation 0.3688506 -0.51543915 0.53214675 0.3571858 0.21692301 -0.4658557 0.91146046 0.6240447 -0.62964815 -0.463791
tx 0.49546903 -0.35239425 0.5498856 0.32229158 0.28891358 -0.41610238 0.8428694 0.51789635 -0.48131964 -0.3124957
drive 0.42273045 -0.5406835 0.69643784 0.2508979 0.36282015 -0.4684622 0.9356693 0.6876816 -0.5531889 -0.41950762
gravel 0.45991698 -0.3549626 0.5579078 0.284691 0.2981486 -0.27948657 0.83557844 0.7021199 -0.48873734 -0.26287422
7576888219 0.32627922 -0.26610142 0.30945593 0.1768753 0.14853683 -0.20629248 0.36404628 0.2753373 -0.35840425 -0.11609539
incoterms 0.50913644 -0.6811026 0.77096754 0.37916648 0.34910634 -0.44537592 1.0644486 0.8999779 -0.75590986 -0.45886225
hard 0.5064826 -0.4306195 0.50727373 0.3429381 0.31220165 -0.34643048 0.74980074 0.67690355 -0.52076584 -0.28618085
acceptance 0.40396938 -0.5199744 0.5265774 0.26466066 0.28598148 -0.44858736 0.84020424 0.5399935 -0.5000536 -0.42873785
andor 0.5026867 -0.3795193 0.5548375 0.24029632 0.24755271 -0.36183113 0.7057053 0.69295627 -0.5503415 -0.31130293
invoiceshiinnscom 0.39539066 -0.43528128 0.6351339 0.31484252 0.20323467 -0.37471467 0.9483505 0.80113184 -0.7246143 -0.48129478
rejection 0.29098675 -0.39135185 0.3755469 0.14745316 0.19327125 -0.29663694 0.5529068 0.49449584 -0.4788602 -0.22491132
copy 0.45990008 -0.49344414 0.5075805 0.22787365 0.26500297 -0.32013384 0.882319 0.66642046 -0.6026707 -0.47341773
13000 0.319154 -0.416179 0.5028985 0.19603027 0.15714899 -0.39244977 0.6102559 0.4418236 -0.48214015 -0.3262523
lg 0.34001362 -0.4393468 0.40465143 0.23234361 0.24560133 -0.36655942 0.6098684 0.52821213 -0.60553586 -0.31879914
ea 0.44664866 -0.46145642 0.5484765 0.30818635 0.32617027 -0.29088306 0.82697713 0.49991617 -0.6277583 -0.39832982
fifteen 0.33357957 -0.5375092 0.4660318 0.24508539 0.26882294 -0.39442918 0.6833856 0.6850181 -0.5658477 -0.30077532
ten 0.42192388 -0.3105642 0.45316574 0.2691685 0.16515236 -0.29224715 0.6980589 0.63893604 -0.5201861 -0.26979145
provide 0.36985835 -0.49471465 0.6451732 0.24431267 0.24872027 -0.47093886 0.7046471 0.74461806 -0.6568246 -0.31432945
boone 0.3608073 -0.5054008 0.4909933 0.36256218 0.3179189 -0.32939765 0.893959 0.65177184 -0.6957775 -0.27275532
dx 0.25132048 -0.2531781 0.44959602 0.1886478 0.10715511 -0.27836257 0.6235959 0.39292106 -0.40563604 -0.33436215
descriptioncontract 0.4645179 -0.44595328 0.59499586 0.19543195 0.13322268 -0.42420802 0.6703583 0.6266137 -0.5309258 -0.22989586
inc 0.5764812 -0.57310164 0.76350373 0.44824904 0.31077787 -0.41596767 0.93051124 0.87323266 -0.77830046 -0.46371067
international 0.54501504 -0.553916 0.6079886 0.31704086 0.2842712 -0.4585475 0.95042694 0.662278 -0.58469427 -0.41059858
supplemental 0.5729051 -0.5776561 0.7265495 0.38164186 0.30918917 -0.44358706 1.0296497 0.8101172 -0.8600876 -0.5715799
summary 0.3424057 -0.43038476 0.4333182 0.1839653 0.12205684 -0.29335544 0.69552904 0.5005001 -0.54667556 -0.2562604
written 0.3179931 -0.4140182 0.4210661 0.20742376 0.16712631 -0.38878098 0.68380743 0.53763187 -0.47960615 -0.20348817
700 0.26787496 -0.22173198 0.3353276 0.25174582 0.16312918 -0.29427534 0.44933546 0.50091577 -0.36686873 -0.21441293
services 0.43468845 -0.45235154 0.4487181 0.1529962 0.15074745 -0.4024905 0.70175385 0.57508564 -0.43970382 -0.27593565
national 0.4463315 -0.4174769 0.5418091 0.3201826 0.34550357 -0.36880228 0.86792624 0.5911417 -0.5308769 -0.31298614
attention 0.37409726 -0.46019313 0.42912045 0.24862967 0.14178273 -0.35618672 0.67416996 0.4341466 -0.50834274 -0.19652306
po 0.40758967 -0.4464643 0.6403748 0.3649722 0.26336735 -0.47822025 0.8087321 0.73124903 -0.7268652 -0.4358135
barcoderfq 0.5035255 -0.54361886 0.495495 0.22900149 0.20113556 -0.4633637 0.7770915 0.7458783 -0.511033 -0.41510025
5 0.4221263 -0.58348256 0.5690283 0.28482994 0.24460185 -0.4156566 0.8653301 0.78376466 -0.68038815 -0.37315643
dpas 0.38250205 -0.54594636 0.58660126 0.20987216 0.30089095 -0.34158945 0.8463803 0.6428526 -0.5908929 -0.28035128
gasket 0.31102857 -0.51194304 0.55135226 0.23520687 0.19255953 -0.36574626 0.6213271 0.59444094 -0.5476295 -0.36041868
certified 0.38731638 -0.35780776 0.5438486 0.16469015 0.17279944 -0.41008633 0.593049 0.5234733 -0.5243979 -0.38988227
has 0.26915535 -0.38053426 0.48822382 0.22990552 0.2832746 -0.36747125 0.5584914 0.48836723 -0.36514372 -0.26281074
cfr 0.28622377 -0.29106957 0.3922443 0.0896698 0.20311216 -0.18995531 0.56523293 0.46537375 -0.46469018 -0.27524704
priority 0.41784084 -0.37495178 0.34928218 0.2725036 0.14827311 -0.23063418 0.6813874 0.46356025 -0.4442588 -0.2270635
shown 0.20182882 -0.278971 0.40516448 0.24969012 0.0557423 -0.13507286 0.5450172 0.3383655 -0.3104553 -0.23072444
in 0.35762843 -0.30401796 0.41764417 0.2741326 0.2099005 -0.31375247 0.49480793 0.4293045 -0.36252493 -0.20305978
executing 0.45312324 -0.3562815 0.5793068 0.15567786 0.16531965 -0.3015603 0.71336937 0.54673344 -0.5749496 -0.34122896
follow 0.18430391 -0.20503488 0.39470854 0.10348584 0.2019669 -0.1986549 0.452997 0.3577844 -0.3698029 -0.14267272
provisions 0.34718728 -0.489879 0.5196561 0.2847047 0.3019408 -0.4434666 0.8026396 0.6871122 -0.6856868 -0.3062309
regulation 0.35333776 -0.42878997 0.3877422 0.24018206 0.10696327 -0.34179142 0.49306086 0.4185065 -0.3456449 -0.19395639
hanboone 0.37894937 -0.47125643 0.5220169 0.27904847 0.21352236 -0.40035397 0.63790226 0.5355926 -0.5648643 -0.27783042
17447341hose 0.36930594 -0.47762468 0.4052538 0.30711207 0.14626855 -0.38408735 0.7456054 0.56580096 -0.5506151 -0.36571524
dxa3dpas 0.27309743 -0.26293564 0.31998858 0.13900359 0.12752798 -0.30464152 0.4581631 0.3439808 -0.32981908 -0.16536152
doa3dpas 0.19653374 -0.357476 0.29872772 0.12042781 0.23866001 -0.18372223 0.39029732 0.3341234 -0.43556643 -0.18541807
d0687 0.277375 -0.3830664 0.4795136 0.29301775 0.24193935 -0.3540989 0.6688831 0.39829096 -0.52029663 -0.35604405
hos09132023main 0.3692127 -0.43122533 0.48356986 0.27946195 0.33600226 -0.28318533 0.7294349 0.6932555 -0.536713 -0.35721144
applicableinspect 0.26772064 -0.30730137 0.35268173 0.20695516 0.28758594 -0.32503086 0.6418021 0.44289336 -0.4219013 -0.21120192
sc6011dappendices 0.1910003 -0.35132444 0.46054187 0.22078298 0.17673527 -0.25131652 0.43575594 0.53984994 -0.41933566 -0.293006
mea 0.38149104 -0.3804171 0.41364482 0.29611522 0.19362488 -0.38167015 0.74001276 0.61505145 -0.41222137 -0.29260853
c 0.53257006 -0.6626326 0.7494044 0.4506098 0.31579527 -0.48601496 0.9522022 0.8146687 -0.8160969 -0.3946945
standardization 0.41522297 -0.3483329 0.46939936 0.21493499 0.18468797 -0.43197206 0.7789182 0.66945416 -0.54908264 -0.3078513
orp 0.32733774 -0.47728977 0.4786524 0.31440514 0.23330392 -0.28778926 0.75619155 0.72042775 -0.5484523 -0.3519312
grade 0.5107314 -0.48951414 0.7061134 0.42771798 0.346192 -0.39991975 1.0107961 0.7106702 -0.77771485 -0.42755613
shock 0.43646765 -0.4630502 0.58854574 0.36718097 0.2212971 -0.38678956 0.8908374 0.6941603 -0.5681111 -0.33238643
stl 0.3563943 -0.49280527 0.52410424 0.15911204 0.20283434 -0.42385656 0.69067895 0.48885614 -0.44711226 -0.36530653
padeye 0.5194993 -0.55489 0.51431406 0.29828745 0.22694951 -0.3588737 0.75108767 0.6340471 -0.64656734 -0.45570546
lbs 0.55938214 -0.55385834 0.7315199 0.26164857 0.34621465 -0.5451021 1.0148073 0.8281342 -0.7627163 -0.34484112
destinationinspect 0.37932208 -0.5690156 0.59353155 0.32445648 0.18506338 -0.47647154 0.9120937 0.68369544 -0.6001879 -0.3450412
inspectioninspect 0.30330494 -0.3611624 0.47356713 0.33003664 0.15484303 -0.28477553 0.70632595 0.46372545 -0.570433 -0.2075241
httpwwwgdebcomsuppliersstdclsinspectiondiscrepant 0.3690511 -0.37408048 0.454232 0.21042293 0.1356718 -0.2809183 0.51752335 0.5244529 -0.4023157 -0.34037572
6018 0.26729357 -0.3256094 0.42180854 0.16695818 0.24134609 -0.2186546 0.46880716 0.49371955 -0.34943828 -0.27171978
vaappendices 0.32291457 -0.44705802 0.44922742 0.28642794 0.13665184 -0.3949977 0.74678946 0.5827136 -0.47048676 -0.36018643
lead 0.34438407 -0.3611685 0.52110285 0.2493982 0.3123445 -0.27077243 0.5754953 0.5230887 -0.5729059 -0.3502852
yard 0.38794363 -0.5564227 0.6390223 0.2933051 0.23792502 -0.4206652 0.6843627 0.53450406 -0.48484036 -0.37450895
electric 0.40098894 -0.4377124 0.57413465 0.27265048 0.23089936 -0.35505143 0.67328143 0.5217179 -0.42333236 -0.25893712
boat 0.4195359 -0.42397082 0.5890722 0.20515399 0.33730444 -0.34776425 0.7107435 0.72600013 -0.58963305 -0.2724902
xxxxxxxxx 0.2678828 -0.24672139 0.4071734 0.14812715 0.13661255 -0.1637198 0.55006653 0.3828344 -0.39964008 -0.2648225
d0699 0.6709138 -0.80172765 0.9367598 0.44884762 0.47845432 -0.5356617 1.1805526 1.043929 -0.9177118 -0.66028774
external 0.5039493 -0.36763936 0.650187 0.24079266 0.1707416 -0.32184154 0.7086131 0.729364 -0.55574524 -0.30445072
pc 0.5291348 -0.5139023 0.5982172 0.321697 0.38581994 -0.4925784 0.8640172 0.69765574 -0.60871834 -0.3381873
sc6011d 0.2799964 -0.3237725 0.38682747 0.24672563 0.27776027 -0.25008255 0.5582066 0.46210855 -0.3747269 -0.18205108
high 0.47535267 -0.4954336 0.53211176 0.21737434 0.20979168 -0.33468342 0.71248794 0.5705961 -0.5031659 -0.26085737
httpwwwgdebcomsuppliersstdclsmodification 0.52600956 -0.47852826 0.5071755 0.21827833 0.28895482 -0.49466014 0.76711446 0.70681065 -0.65937936 -0.4773235
d0701 0.40192163 -0.46260852 0.37902611 0.21068716 0.22688915 -0.31452984 0.58590156 0.58744043 -0.38499746 -0.36452103
paint 0.49536517 -0.37007344 0.45722562 0.2464363 0.28896555 -0.2832323 0.70819503 0.5424147 -0.5151465 -0.43322703
requir 0.36730963 -0.48906425 0.62700474 0.2282564 0.31348145 -0.38394704 0.82567626 0.72355896 -0.5880474 -0.2887951
6029 0.37168992 -0.49482277 0.5903208 0.2021337 0.27583915 -0.3733048 0.6297636 0.5087748 -0.47699577 -0.32650292
httpwwwgdebcomsuppliersstdclsquality 0.42511463 -0.5475246 0.50110394 0.21895802 0.34065944 -0.45386028 0.8241344 0.62776595 -0.57418543 -0.265689
ebdiv 0.33649662 -0.48236376 0.50568426 0.3259712 0.31902003 -0.37136754 0.7232804 0.6221565 -0.57278496 -0.24959238
2678 0.2495814 -0.33080208 0.47645098 0.25916556 0.15239058 -0.25773814 0.67100006 0.5796516 -0.54209465 -0.21772051
xxxx 0.53170365 -0.55265194 0.73674756 0.28274667 0.2816798 -0.50060374 0.8733981 0.7471235 -0.71428907 -0.46953905
6058 0.3831229 -0.4061824 0.35741737 0.28536958 0.29051024 -0.24608862 0.59954 0.49539587 -0.45530307 -0.20418487
httpwwwgdebcomsuppliersstdclsvendor 0.439139 -0.5531565 0.71425015 0.31829908 0.32091025 -0.41268578 1.0451893 0.79740703 -0.6142318 -0.48869112
0519rev 0.46592465 -0.5004617 0.5133473 0.28795254 0.21585944 -0.42624 0.8177928 0.72349596 -0.6509331 -0.4525567
7210 0.48282322 -0.4970899 0.59127086 0.44391355 0.31725645 -0.44147536 0.94956475 0.7367581 -0.69170344 -0.38085985
httpwwwgdebcomsuppliersstdclssafeguarding 0.42144263 -0.5533124 0.6683491 0.37101433 0.372333 -0.4685697 0.98622096 0.694474 -0.7079948 -0.32636923
statement 0.40964428 -0.48105997 0.46333244 0.15110312 0.20144312 -0.25968122 0.5970815 0.60531753 -0.44251382 -0.34495378
destination 0.45273829 -0.6310756 0.6990812 0.40733385 0.42265227 -0.4660297 1.0040535 0.8733191 -0.83449024 -0.48144656
d 0.28482917 -0.2383221 0.33788392 0.12969537 0.20590714 -0.23717585 0.48767948 0.3989756 -0.4326736 -0.2889902
eb3701 0.3493518 -0.53211796 0.55946404 0.36277395 0.2823927 -0.3759613 0.83230364 0.6488859 -0.5903655 -0.37327364
httpwwwgdebcomsuppliersstdclsmodifications 0.49615064 -0.4918026 0.4970066 0.30083668 0.36816886 -0.4422792 0.76750743 0.6495732 -0.52918774 -0.38221836
e 0.6380449 -0.68999225 0.8196533 0.26729476 0.43131274 -0.4688309 1.0506824 0.78603095 -0.68505293 -0.40680885
84003193sktch 0.33084714 -0.52560234 0.5797994 0.20612125 0.14836678 -0.31855822 0.6741605 0.519355 -0.44155657 -0.3461916
classification 0.35821825 -0.46026373 0.46066862 0.20667332 0.17719136 -0.39056534 0.623996 0.6807241 -0.46605957 -0.35844463
pinvpn 0.11308132 -0.17608027 0.19541934 0.14403339 0.06520907 -0.14825761 0.1402195 0.18683764 -0.15699649 -0.04578178
142427 0.24910319 -0.12951803 0.15445855 0.16025992 0.06949503 -0.20303887 0.36347377 0.15217435 -0.2312727 -0.1479774
conditions 0.2191208 -0.3479569 0.46533468 0.15528764 0.11944342 -0.20967078 0.53855455 0.39258412 -0.42736214 -0.26456288
special 0.4439636 -0.40742642 0.57240784 0.15187962 0.26895866 -0.26743603 0.7084436 0.54376745 -0.51209754 -0.32379675
service 0.43015742 -0.63496983 0.686931 0.32559362 0.4127439 -0.46512237 1.018739 0.8106794 -0.6387381 -0.53024286
temporary 0.38568866 -0.41222468 0.5031394 0.24117287 0.15558952 -0.22836353 0.64836174 0.5753574 -0.5729827 -0.27272487
remarks 0.5678464 -0.53074145 0.68759495 0.315342 0.37120366 -0.31729695 0.8713368 0.703824 -0.749726 -0.303392
vcs 0.3412308 -0.38485995 0.46852508 0.33093682 0.30729318 -0.31065744 0.7142313 0.6274813 -0.49144515 -0.24859652
steel 0.3703964 -0.4301668 0.54417706 0.21356143 0.20390809 -0.23520125 0.59661627 0.53291553 -0.54764897 -0.25634894
braided 0.3705457 -0.38936648 0.4456229 0.19510145 0.09291562 -0.28515023 0.5323602 0.40346712 -0.41895172 -0.30304474
air 0.5538016 -0.4531021 0.6409986 0.3628263 0.2957283 -0.44248495 0.8560605 0.7726378 -0.65594274 -0.35269982
l 0.4549161 -0.39535245 0.5617621 0.18858123 0.22665243 -0.40052807 0.7946306 0.67750126 -0.5860288 -0.3194747
02 0.43721858 -0.4128701 0.52077043 0.1955763 0.33880308 -0.4199635 0.66894716 0.54292107 -0.60960543 -0.36771595
various 0.32191408 -0.4539371 0.5159409 0.25292638 0.31284297 -0.33629355 0.800926 0.6288999 -0.48859206 -0.35330474
assembly 0.4995091 -0.40942436 0.497547 0.21002528 0.3777982 -0.37595683 0.8270751 0.7436552 -0.68150294 -0.44906548
hos 0.3077334 -0.36293423 0.49374196 0.18749757 0.18481843 -0.2864539 0.7110322 0.5397702 -0.5659704 -0.34902665
09132023delivery 0.34229082 -0.44092417 0.5426324 0.2706069 0.19992863 -0.31004837 0.7615775 0.48744392 -0.60740834 -0.25883248
04242023quotation 0.3476695 -0.48684302 0.49645305 0.38445136 0.2332981 -0.45887288 0.81623006 0.66897386 -0.5471673 -0.2841359
17447341material 0.213973 -0.21907808 0.34033778 0.15098405 0.07901359 -0.201872 0.43553916 0.42406815 -0.3464781 -0.28383034
c005 0.55553967 -0.45959204 0.5984116 0.33644947 0.2641908 -0.38531643 1.0442619 0.7772534 -0.6566055 -0.36028787
manufacturers 0.31945974 -0.38709605 0.40050972 0.17286408 0.15110436 -0.1918043 0.5071984 0.52877843 -0.39421788 -0.2353124
16jul2013 0.31007442 -0.45591038 0.34368008 0.27572003 0.13981369 -0.26555756 0.65404224 0.44079983 -0.49483934 -0.34320474
1215 0.2598307 -0.38466263 0.5588986 0.1655947 0.17089382 -0.22581886 0.7452431 0.6327708 -0.58689886 -0.24670374
automated 0.062098652 -0.07505689 0.23295364 0.052202288 0.14840864 -0.19427432 0.2885664 0.24603143 -0.123102665 -0.051764566
guns 0.4617756 -0.50567347 0.5872971 0.26388747 0.33421266 -0.5344991 0.9202216 0.76670396 -0.61003625 -0.48916414
sheet 0.43833384 -0.55552053 0.5652028 0.30888435 0.33252504 -0.45852786 0.847117 0.8002681 -0.6609973 -0.42992124
cage 0.29518473 -0.23359346 0.29044858 0.24122047 0.22069685 -0.16420144 0.44989648 0.31961027 -0.2308195 -0.14033154
5elf9 0.25879583 -0.40812325 0.41031104 0.12846169 0.2301775 -0.37234482 0.5719515 0.51593596 -0.41177094 -0.23918702
p999000299 0.116336584 -0.19858898 0.3322996 0.17378613 0.20666946 -0.16956107 0.4551662 0.41201591 -0.30254877 -0.18573335
code 0.25421867 -0.33469447 0.36930716 0.10684195 0.113278724 -0.22827382 0.52389437 0.38664606 -0.33942002 -0.23023233
proce 0.13315618 -0.1865361 0.15460709 0.06407595 0.09772036 -0.09303661 0.31109637 0.3108557 -0.21264847 -0.16517752
semco 0.34282243 -0.40566078 0.6229952 0.2209044 0.3064476 -0.27709365 0.72025585 0.6118251 -0.6775608 -0.32390538
data 0.3549619 -0.41465053 0.61536527 0.17434691 0.14397894 -0.32737905 0.6460461 0.5098512 -0.638711 -0.3362206
keyona 0.28588954 -0.32240513 0.3868673 0.2887219 0.27110213 -0.32733646 0.64117 0.36830133 -0.43070298 -0.22793648
dwg 0.42385304 -0.515522 0.57807297 0.29545814 0.17350739 -0.43049186 0.72327703 0.69976276 -0.6110757 -0.44242534
c2 0.4390981 -0.42337325 0.5422357 0.31473416 0.19503066 -0.26538485 0.6418369 0.5556999 -0.61200047 -0.31713676
f 0.39604095 -0.43214178 0.6807471 0.24385324 0.3520462 -0.35138673 0.8053017 0.7726933 -0.7348451 -0.30562347
httpsupplierhuntingtoningallscomsourcingpoappendiceshtmleb3701 0.41137472 -0.4031076 0.39496738 0.23083377 0.2213011 -0.31631485 0.7658424 0.53305835 -0.59998953 -0.40064177
clpgreh36t 0.42829633 -0.47497824 0.58866113 0.27458975 0.35630158 -0.38954574 0.88673854 0.7196026 -0.68841696 -0.3958664
keyonamwoodenhiinnscom 0.15073517 -0.3230118 0.2722821 0.21941714 0.13377818 -0.113924906 0.4051646 0.2996199 -0.28272018 -0.17339627
0072 0.46809578 -0.55140495 0.5683192 0.35617408 0.21744776 -0.50650394 0.7905676 0.8137813 -0.61967504 -0.33083734
httpsupplierhuntingtoningallscomsourcingpoappendiceshtmlrfq 0.30629238 -0.30492827 0.31968224 0.16786087 0.1875994 -0.21903905 0.48202562 0.26269993 -0.2229317 -0.11003301
prev 0.2956313 -0.2859874 0.46834445 0.21720326 0.26057413 -0.24411096 0.54853386 0.54052544 -0.3747458 -0.2902921
httpsupplierhuntingtoningallscomsourcingpoappendiceshtmleb2678 0.29966477 -0.319537 0.4338237 0.13593578 0.1345278 -0.26389772 0.5768428 0.3779274 -0.32420924 -0.2767605
xxxxx 0.31727302 -0.257436 0.4133546 0.13132611 0.12688938 -0.19625401 0.4564791 0.4597073 -0.4228448 -0.19737095
7573804942 0.20068166 -0.2373571 0.30346856 0.11710833 0.084028356 -0.26974097 0.41432995 0.37228122 -0.35259125 -0.085911855
eb4186 0.40398493 -0.4590943 0.4764638 0.28287387 0.15453817 -0.304554 0.739188 0.62667114 -0.46013567 -0.2774213
wooden 0.08589972 -0.1887822 0.2380032 0.0051915096 0.052469756 -0.13516654 0.28145406 0.11753265 -0.13037448 -0.07627176
lift 0.2496319 -0.40608194 0.31239364 0.23237541 0.08786096 -0.20512445 0.52375424 0.3635308 -0.46595925 -0.17420924
capacity 0.36409998 -0.3568945 0.41017723 0.1635452 0.18201476 -0.32803854 0.6434188 0.4939927 -0.62303054 -0.33227706
263332602xxxxmaterial 0.46171686 -0.5136809 0.46350726 0.2757945 0.272075 -0.43078813 0.8089914 0.5182045 -0.4950172 -0.23711339
0875thk 0.45644793 -0.38670284 0.6168974 0.30610555 0.17356311 -0.30111602 0.6761759 0.5645609 -0.50825894 -0.42286137
132354 0.2974586 -0.42867452 0.50880086 0.28827828 0.24226145 -0.26874745 0.6402248 0.59273434 -0.57121325 -0.3214428
lbslift 0.30611643 -0.4236629 0.5562678 0.30868357 0.19171226 -0.3246726 0.7997477 0.5342249 -0.5760068 -0.33445084
padeyestl0875thk 0.33504325 -0.34039065 0.5874457 0.34929174 0.33105466 -0.42921367 0.7177062 0.5180871 -0.5885736 -0.4166318
military 0.4885309 -0.50450283 0.5363346 0.38365662 0.29168049 -0.40075925 0.8157937 0.66433954 -0.6630933 -0.3109966
04212023delivery 0.46520227 -0.5418639 0.6309454 0.30740598 0.24098016 -0.31466085 0.79128915 0.7540347 -0.661312 -0.45049688
04172023quotation 0.39937443 -0.532685 0.5830586 0.2792703 0.3239956 -0.34326378 0.81571573 0.7198667 -0.64130175 -0.37173912
4000rfq 0.32822955 -0.40508607 0.40907782 0.18843992 0.21022576 -0.28821754 0.5482504 0.5899763 -0.498215 -0.3212778
pc72 0.26252422 -0.3910656 0.36679083 0.10935344 0.18567403 -0.35615033 0.5350944 0.4072706 -0.33755395 -0.28121123
tonnage 0.41982186 -0.49980864 0.5842914 0.31341523 0.33525437 -0.5132134 0.84863466 0.7009657 -0.6295149 -0.33656755
max 0.33998844 -0.30869853 0.4350036 0.15709223 0.27912793 -0.19649003 0.6043188 0.5501724 -0.5018237 -0.24768795
cap 0.4507857 -0.41575417 0.41546234 0.21877979 0.19505998 -0.34793192 0.66530365 0.6324957 -0.5143981 -0.2694967
matl 0.22368805 -0.21283643 0.28808725 0.08583399 0.120720305 -0.30856588 0.4459207 0.4128876 -0.34756064 -0.2130177
with 0.3376819 -0.3349967 0.4059334 0.19902828 0.25369748 -0.17216353 0.5209804 0.45565307 -0.46394876 -0.29352188
strengship 0.23345236 -0.33771744 0.35579166 0.1672858 0.20338771 -0.24561249 0.48265183 0.4849625 -0.3755406 -0.2171108
04242023 0.32382277 -0.29816866 0.56722075 0.23693685 0.22748595 -0.40747288 0.61373323 0.5461412 -0.4577189 -0.2991824
stamp 0.2589303 -0.3279783 0.3896151 0.32074687 0.27186915 -0.37849915 0.685769 0.61524636 -0.55142915 -0.36253354
30jan2023 0.34355778 -0.26039267 0.43142012 0.07030075 0.13975528 -0.15514806 0.45785037 0.3694954 -0.42246297 -0.27121612
eb3701appendices 0.1526742 -0.15111282 0.2731221 0.06597318 0.2174712 -0.22627811 0.3955578 0.33194083 -0.27632403 -0.23192734
jonathan 0.40524393 -0.4810402 0.63002545 0.34200415 0.2619008 -0.42453533 0.79617196 0.64172727 -0.63122857 -0.40631264
eb2678appendices 0.25514954 -0.2899041 0.2961783 0.13978666 0.25582612 -0.29357594 0.6164368 0.44602653 -0.45383272 -0.2914747
05012023quotation 0.39176586 -0.3882047 0.4602397 0.20849255 0.17397687 -0.2818631 0.7171862 0.64386356 -0.570223 -0.41287473
r002revision 0.4575257 -0.5235753 0.6617235 0.23351324 0.22278757 -0.48361057 0.9187939 0.68814224 -0.65576804 -0.36182237
310l12material 0.24189967 -0.19568397 0.23363654 0.14074823 0.06809827 -0.24064706 0.45866665 0.26579225 -0.37238201 -0.13115771
3409appendices 0.38190672 -0.33332774 0.42117697 0.16596611 0.14258921 -0.3535817 0.4825507 0.36812043 -0.4792944 -0.17290433
84012205nns 0.40877065 -0.36550623 0.41645238 0.28984678 0.20325203 -0.33340845 0.6162984 0.502583 -0.47838327 -0.31829673
formappendices 0.37196225 -0.22541746 0.27852753 0.124982595 0.17991509 -0.23371029 0.4269136 0.5120006 -0.4354068 -0.18837184
traveldwr08102023main 0.2818251 -0.19852793 0.29299793 0.09994565 0.020932294 -0.1629072 0.34448966 0.19322078 -0.19541763 -0.237397
310l12slidestl12000 0.3465345 -0.3722866 0.29842135 0.106813885 0.24239853 -0.31508434 0.6045584 0.4390285 -0.3152979 -0.181447
2000 0.30965844 -0.14860803 0.19991173 0.044076182 0.07370831 -0.1962336 0.44436854 0.3617442 -0.31697798 -0.13082726
600114981904212023093858 0.2963604 -0.43154153 0.47679773 0.120686285 0.20976263 -0.33489335 0.687612 0.46362406 -0.4294826 -0.34285846
a23 0.4558067 -0.45275423 0.51050526 0.2715603 0.31018078 -0.37362587 0.6305431 0.48949385 -0.44495854 -0.35182542
lulashoreshiinnscom 0.23911096 -0.21833408 0.3240429 0.06760861 0.117166616 -0.1697469 0.270084 0.3797589 -0.2869086 -0.0992325
shores 0.210475 -0.18139674 0.29726136 0.22810908 0.044162095 -0.10035557 0.47789508 0.33343798 -0.24714145 -0.1420549
lula 0.35370374 -0.37721983 0.44172645 0.21901567 0.24260107 -0.19423456 0.5101073 0.48484185 -0.5270637 -0.28507513
05012023 0.2455161 -0.34347892 0.42751142 0.21896079 0.27647164 -0.38031965 0.6409787 0.49410224 -0.5110745 -0.36166573
requestspage 0.13955495 -0.15698364 0.21621087 0.19402733 0.098956525 -0.20654847 0.43784502 0.252562 -0.36408722 -0.26513493
eb17c2117 0.14996295 -0.320734 0.29371116 0.16926926 0.14566004 -0.29678813 0.42331937 0.34937838 -0.40789062 -0.27669033
10000rfq 0.38486505 -0.5382191 0.46382824 0.20208798 0.29015183 -0.44375423 0.73350024 0.696556 -0.50688076 -0.4157546
00002rfq 0.3968578 -0.44062448 0.4411471 0.28596708 0.17655018 -0.20037587 0.6117773 0.5519665 -0.3935983 -0.3685432
requestsrfq 0.29717797 -0.47091833 0.46321186 0.17150798 0.22325006 -0.39822492 0.6770041 0.54765147 -0.4359965 -0.3970298
eb12c2115 0.34233582 -0.35964304 0.5875353 0.23443995 0.23805936 -0.39445812 0.71037626 0.49451807 -0.60481995 -0.30610153
3000 0.2450513 -0.21597317 0.22903529 0.17932045 0.16887939 -0.27011713 0.46324226 0.44023323 -0.4116386 -0.20619933
10000 0.24860317 -0.21748203 0.3073156 0.22158627 0.19688775 -0.15033872 0.47489566 0.24574114 -0.22080347 -0.14138363
3000rfq 0.2660262 -0.40504166 0.49042213 0.2770848 0.10093754 -0.27452663 0.6053194 0.5060085 -0.3834235 -0.34853828
atrfq 0.4046518 -0.43246323 0.47141188 0.30059558 0.1540188 -0.36794847 0.6402085 0.38481903 -0.5173853 -0.27133375
brev 0.32008886 -0.34325594 0.597586 0.26574078 0.31935373 -0.25041845 0.7787816 0.641774 -0.49504825 -0.26909122
requests 0.33646548 -0.25601926 0.31187794 0.28623614 0.2654926 -0.1642092 0.4546973 0.41397038 -0.4117918 -0.20467782
c013 0.09910414 -0.19879758 0.300829 0.21672213 0.08397707 -0.14240047 0.40155298 0.2573769 -0.2337329 -0.24595009
c003 0.41449532 -0.40932095 0.5848932 0.1785097 0.2001196 -0.33337295 0.7824686 0.5759396 -0.51347876 -0.31020847
c002 0.11489095 -0.117504604 0.18324494 0.10252429 0.21878216 -0.16312571 0.30860603 0.31205142 -0.31471533 -0.2322171
2000rfq 0.3803555 -0.4636767 0.52133846 0.34871525 0.22741649 -0.3536787 0.81965834 0.6517987 -0.58267397 -0.4793624
08102023delivery 0.34437868 -0.38808382 0.37182337 0.14599146 0.27428323 -0.34063652 0.6689454 0.41738874 -0.44677547 -0.3036641
a21 0.19984134 -0.3176282 0.26071513 0.14018245 0.13212666 -0.25340998 0.43600965 0.3073306 -0.31154716 -0.2363309
slidestl12000 0.4134485 -0.35995108 0.5515076 0.19965717 0.1273098 -0.2993093 0.5722918 0.5995508 -0.40907544 -0.2971259
lbslift04212023main 0.38738465 -0.25789008 0.45784268 0.2593447 0.2819958 -0.2670713 0.50014776 0.3959534 -0.4525992 -0.2745237
stl0875thk 0.36465928 -0.39547756 0.33991668 0.27443352 0.15082458 -0.33703008 0.5380749 0.36860132 -0.44085622 -0.2996644
ea2633326020072padeye 0.3183348 -0.27797267 0.45896798 0.2935028 0.27943727 -0.23446764 0.5337098 0.5580493 -0.53984064 -0.319669
4000 0.3451251 -0.21470673 0.3004927 0.095628545 0.23996781 -0.2766145 0.45630184 0.47872847 -0.32012963 -0.18869397
600114808504122023092518 0.28128368 -0.24046504 0.47419846 0.26943824 0.27236757 -0.31892183 0.5659063 0.4370863 -0.34991443 -0.15579334
a05 0.29882798 -0.23336561 0.3935447 0.22758274 0.14957383 -0.3002961 0.44858837 0.4708633 -0.401535 -0.20094709
shavonnesmallhiinnscom 0.2676054 -0.3127701 0.3727449 0.16025265 0.15874577 -0.11082672 0.42658916 0.34591728 -0.40254134 -0.0901321
7573803673 0.33334178 -0.39177006 0.6227587 0.2874297 0.18265012 -0.28441995 0.7950367 0.71379066 -0.63759094 -0.41563562
small 0.28298467 -0.39246073 0.30898994 0.09355136 0.2261585 -0.24586836 0.52109826 0.4868838 -0.41499928 -0.31583264
shavonne 0.46227294 -0.54151815 0.58039963 0.38576117 0.25793284 -0.32132825 0.8595683 0.6337464 -0.66254395 -0.28131124
04172023 0.39500213 -0.41768655 0.50569594 0.2013931 0.2666546 -0.36231253 0.7449794 0.528577 -0.53422695 -0.2813692
controlpage 0.22742514 -0.35729146 0.3103197 0.2178076 0.2052373 -0.2440128 0.5769871 0.4634061 -0.39902171 -0.2692748
3409 0.44484633 -0.458841 0.46033257 0.20648316 0.13604169 -0.42112815 0.7468524 0.6310989 -0.59830016 -0.42634368
httpsupplierhuntingtoningallscomsourcingpoappendiceshtml84012205nns 0.28470543 -0.33483192 0.36702648 0.2792923 0.27426305 -0.24416274 0.571586 0.5573056 -0.5369099 -0.20386508
form 0.30668923 -0.41047496 0.5178375 0.22494511 0.26311097 -0.3517699 0.7111158 0.44125342 -0.43252555 -0.31292945
eb17c2100 0.2827648 -0.37519833 0.4378631 0.21727239 0.19119488 -0.3931108 0.5544014 0.45050275 -0.56165606 -0.3340483
310l12 0.4139289 -0.37553987 0.3554999 0.15719426 0.23205057 -0.31407535 0.5901608 0.45712164 -0.39373127 -0.3556142
eng 0.22661269 -0.26008815 0.3323437 0.22426502 0.19220899 -0.17289248 0.6106207 0.4852334 -0.39406508 -0.23513056
600114948504202023080248 0.34657526 -0.39048076 0.47734126 0.28291118 0.2935427 -0.29583853 0.6019331 0.5696142 -0.5467723 -0.28352073
c004 0.27966443 -0.3379596 0.3695122 0.26552704 0.30715507 -0.33078206 0.5632353 0.458829 -0.45749018 -0.3515592
vendor 0.4613383 -0.45593336 0.6125369 0.26128164 0.18587516 -0.41499043 0.7575213 0.5679336 -0.49152175 -0.37813234
204611 0.29485434 -0.3775849 0.41989255 0.149448 0.16064356 -0.33492374 0.6620601 0.5756286 -0.42155194 -0.23525779
07dec2017 0.48757496 -0.4759841 0.5177565 0.3820012 0.2624436 -0.33860257 0.7981477 0.72807914 -0.5543876 -0.44149083
ext 0.28349927 -0.34750777 0.4345391 0.11890333 0.24493988 -0.24480166 0.5852949 0.4477036 -0.51436186 -0.18979064
dwr 0.34399387 -0.5541735 0.6187049 0.20336181 0.23229308 -0.40532395 0.78539884 0.5962993 -0.56199706 -0.3557043
travel 0.36987048 -0.381451 0.51249176 0.12651739 0.26157576 -0.3479894 0.6391868 0.4383899 -0.4880212 -0.34925866
12000 0.45507973 -0.44893312 0.67679596 0.34459868 0.23917256 -0.37760106 0.8340845 0.7300598 -0.7522109 -0.47878563
slide 0.44098207 -0.49463314 0.57827914 0.31794193 0.19372135 -0.3901041 0.7563567 0.54584324 -0.68522483 -0.342378
traveldwr 0.30940986 -0.29094565 0.3015586 0.21709062 0.17972103 -0.33282697 0.5722451 0.4880741 -0.448599 -0.23603143
streng 0.30441192 -0.29950854 0.3214655 0.12150403 0.2112143 -0.14572655 0.4776937 0.32834578 -0.35965493 -0.24853103
